<?xml version="1.0"?>
<opencv_storage>
<!-- Created using Computer Vision System Toolbox(tm) for MATLAB(R) -->
<!-- Version 8.6.0.267246 (R2015b) -->
<!-- Compatible with OpenCV 2.4 -->
<cascade>
  <stageType>BOOST</stageType>
  <featureType>LBP</featureType>
  <height>32</height>
  <width>37</width>
  <stageParams>
    <boostType>GAB</boostType>
    <minHitRate>9.9500000476837158e-01</minHitRate>
    <maxFalseAlarm>9.9999997764825821e-03</maxFalseAlarm>
    <weightTrimRate>9.4999999999999996e-01</weightTrimRate>
    <maxDepth>1</maxDepth>
    <maxWeakCount>100</maxWeakCount></stageParams>
  <featureParams>
    <maxCatCount>256</maxCatCount>
    <featSize>1</featSize></featureParams>
  <stageNum>15</stageNum>
  <stages>
    <!-- stage 0 -->
    <_>
      <maxWeakCount>5</maxWeakCount>
      <stageThreshold>3.2291981577873230e-01</stageThreshold>
      <weakClassifiers>
        <_>
          <internalNodes>
            0 -1 4 -992159780 -539799319 -1073721984 -1048035328
            -192879762 -402653182 -1308456310 -393079932</internalNodes>
          <leafValues>
            -8.8990825414657593e-01 5.2112674713134766e-01</leafValues></_>
        <_>
          <internalNodes>
            0 -1 34 -712444497 -313417500 1124664081 -774528937
            -733970293 -654047232 -737770685 -1439557600</internalNodes>
          <leafValues>
            -7.2135835886001587e-01 8.5079741477966309e-01</leafValues></_>
        <_>
          <internalNodes>
            0 -1 46 658509111 -1232797611 1392607505 60882961
            -1962145619 -670810106 1100137403 -73815449</internalNodes>
          <leafValues>
            -7.2620093822479248e-01 8.1286185979843140e-01</leafValues></_>
        <_>
          <internalNodes>
            0 -1 8 -674933794 -1604058846 -670810092 1551929568
            1881202859 -796845920 -1442772085 747154132</internalNodes>
          <leafValues>
            -9.4942998886108398e-01 6.4163726568222046e-01</leafValues></_>
        <_>
          <internalNodes>
            0 -1 25 136740956 1248346123 1092652285 -1153302389
            269525231 -268402486 -1988064604 -2087003998</internalNodes>
          <leafValues>
            -9.3134766817092896e-01 6.6857481002807617e-01</leafValues></_></weakClassifiers></_>
    <!-- stage 1 -->
    <_>
      <maxWeakCount>5</maxWeakCount>
      <stageThreshold>5.3272429853677750e-02</stageThreshold>
      <weakClassifiers>
        <_>
          <internalNodes>
            0 -1 33 268802192 -665779050 285544787 -1114568623
            -2147483505 -123076472 -1853322865 -1965553132</internalNodes>
          <leafValues>
            -8.4615385532379150e-01 4.8201438784599304e-01</leafValues></_>
        <_>
          <internalNodes>
            0 -1 65 282068316 -683210484 -786349943 -549650287
            -1870636996 -1995963197 814383183 2076814058</internalNodes>
          <leafValues>
            -8.4700071811676025e-01 5.5716800689697266e-01</leafValues></_>
        <_>
          <internalNodes>
            0 -1 75 1884901472 -715915251 1479020629 -1325135872
            -1853784055 -209190903 -2004645240 -349695296</internalNodes>
          <leafValues>
            -8.3003997802734375e-01 6.5112245082855225e-01</leafValues></_>
        <_>
          <internalNodes>
            0 -1 23 236195720 -930672632 -1744781118 -972893668
            -402259959 1758068744 -1321123388 -120661716</internalNodes>
          <leafValues>
            -8.6208713054656982e-01 6.3347500562667847e-01</leafValues></_>
        <_>
          <internalNodes>
            0 -1 42 289456381 1359003786 1073856516 1481703433
            -1558085118 -2147418094 -2147303414 -1172273141</internalNodes>
          <leafValues>
            -7.8934496641159058e-01 7.4977427721023560e-01</leafValues></_></weakClassifiers></_>
    <!-- stage 2 -->
    <_>
      <maxWeakCount>6</maxWeakCount>
      <stageThreshold>4.7283270955085754e-01</stageThreshold>
      <weakClassifiers>
        <_>
          <internalNodes>
            0 -1 47 1363284242 -778612711 201398303 -939290622
            -1735253686 -116883288 -931036391 -541029757</internalNodes>
          <leafValues>
            -8.6069649457931519e-01 3.3333334326744080e-01</leafValues></_>
        <_>
          <internalNodes>
            0 -1 79 1368633288 1967199689 272662547 1973149961
            1619070988 -931069951 -1568660840 -1923594103</internalNodes>
          <leafValues>
            -8.2008904218673706e-01 5.2936220169067383e-01</leafValues></_>
        <_>
          <internalNodes>
            0 -1 58 390267203 -384335870 33574920 2064188036 -1593801992
            -1862205424 67690987 -487604027</internalNodes>
          <leafValues>
            -7.7737313508987427e-01 6.3792020082473755e-01</leafValues></_>
        <_>
          <internalNodes>
            0 -1 0 -2138389995 -1392246144 49602 -582418312 -1442278727
            1745158274 134325391 -317980503</internalNodes>
          <leafValues>
            -7.6112651824951172e-01 6.7143714427947998e-01</leafValues></_>
        <_>
          <internalNodes>
            0 -1 73 1225261532 -83529717 -2147483633 369623579
            -532660096 142639112 302659728 -1648089070</internalNodes>
          <leafValues>
            -8.4074860811233521e-01 6.6032344102859497e-01</leafValues></_>
        <_>
          <internalNodes>
            0 -1 80 -1830707396 2013343810 50372627 -45023203 1610940512
            838865168 -2120220148 998811648</internalNodes>
          <leafValues>
            -8.5847157239913940e-01 6.3220328092575073e-01</leafValues></_></weakClassifiers></_>
    <!-- stage 3 -->
    <_>
      <maxWeakCount>5</maxWeakCount>
      <stageThreshold>2.3602123558521271e-01</stageThreshold>
      <weakClassifiers>
        <_>
          <internalNodes>
            0 -1 56 -1895194185 -2142825141 -788262574 -1274736300
            -2136940538 1084428456 -796220688 -170081407</internalNodes>
          <leafValues>
            -7.8448277711868286e-01 4.8437500000000000e-01</leafValues></_>
        <_>
          <internalNodes>
            0 -1 77 -590016986 -922648569 87032067 -505315112 -436063163
            1803864079 1216380965 -1014708222</internalNodes>
          <leafValues>
            -8.4159654378890991e-01 5.9309315681457520e-01</leafValues></_>
        <_>
          <internalNodes>
            0 -1 69 823677407 -1057390587 1543739528 -1167044595
            735289654 145391744 -1054830544 -947678924</internalNodes>
          <leafValues>
            -7.9698288440704346e-01 6.7957276105880737e-01</leafValues></_>
        <_>
          <internalNodes>
            0 -1 38 903197013 270762385 1082247746 -216004350
            -1061120357 -1845477242 -980891760 -95920056</internalNodes>
          <leafValues>
            -7.6395303010940552e-01 7.2447037696838379e-01</leafValues></_>
        <_>
          <internalNodes>
            0 -1 68 89657709 470815751 -1610612607 -1315438384
            -2138993887 134791304 194060425 -1596915183</internalNodes>
          <leafValues>
            -7.5706660747528076e-01 8.0839157104492188e-01</leafValues></_></weakClassifiers></_>
    <!-- stage 4 -->
    <_>
      <maxWeakCount>5</maxWeakCount>
      <stageThreshold>2.0005454123020172e-01</stageThreshold>
      <weakClassifiers>
        <_>
          <internalNodes>
            0 -1 24 -1942892081 -1405025246 1887469826 -1576284032
            -1908301205 1644732553 -1342078815 -22957317</internalNodes>
          <leafValues>
            -7.3809522390365601e-01 6.1111110448837280e-01</leafValues></_>
        <_>
          <internalNodes>
            0 -1 52 1653904370 -1807150333 -1073725438 1141178906
            -800779301 -1876721598 1636090036 -1335022440</internalNodes>
          <leafValues>
            -8.4875786304473877e-01 5.5539178848266602e-01</leafValues></_>
        <_>
          <internalNodes>
            0 -1 30 352436302 1140181001 1073778944 805474561 134250635
            -2004316152 -2145287637 -1823936051</internalNodes>
          <leafValues>
            -8.5723066329956055e-01 5.5912935733795166e-01</leafValues></_>
        <_>
          <internalNodes>
            0 -1 70 -720964699 1360807939 -1862238180 298877156
            142786562 1359626336 -2146860800 -1736388985</internalNodes>
          <leafValues>
            -8.1815642118453979e-01 6.2403041124343872e-01</leafValues></_>
        <_>
          <internalNodes>
            0 -1 28 -1336806261 -788398072 16512 1510019078 -2012872183
            1510473730 1392640008 -458620407</internalNodes>
          <leafValues>
            -7.0742136240005493e-01 7.7290517091751099e-01</leafValues></_></weakClassifiers></_>
    <!-- stage 5 -->
    <_>
      <maxWeakCount>6</maxWeakCount>
      <stageThreshold>6.4968729019165039e-01</stageThreshold>
      <weakClassifiers>
        <_>
          <internalNodes>
            0 -1 29 -779857596 -774601621 1342181421 -1659812603
            1073741839 -1610612734 167862295 -441933685</internalNodes>
          <leafValues>
            -8.7999999523162842e-01 3.4999999403953552e-01</leafValues></_>
        <_>
          <internalNodes>
            0 -1 72 -791166769 269619859 -1542979072 -753839615
            310379106 286410890 -938344128 -1561599077</internalNodes>
          <leafValues>
            -7.2922980785369873e-01 6.2642228603363037e-01</leafValues></_>
        <_>
          <internalNodes>
            0 -1 50 -259788437 1358954560 268435528 1091667090
            -2147344254 -2145828854 -2113892293 -1483751218</internalNodes>
          <leafValues>
            -6.8795460462570190e-01 7.3002874851226807e-01</leafValues></_>
        <_>
          <internalNodes>
            0 -1 64 -124657186 297828617 268714274 -2079465215
            -1845377012 269502623 -1073610232 -1772377598</internalNodes>
          <leafValues>
            -8.0413943529129028e-01 6.4651113748550415e-01</leafValues></_>
        <_>
          <internalNodes>
            0 -1 6 -510541502 1435529223 1073741890 1126481953 8425600
            -2096627712 -1593802529 294097299</internalNodes>
          <leafValues>
            -9.2832261323928833e-01 6.0890281200408936e-01</leafValues></_>
        <_>
          <internalNodes>
            0 -1 51 -935082529 922812997 1141182466 69470226 -2147450864
            286261266 1745240204 281124943</internalNodes>
          <leafValues>
            -8.6152708530426025e-01 6.1399537324905396e-01</leafValues></_></weakClassifiers></_>
    <!-- stage 6 -->
    <_>
      <maxWeakCount>5</maxWeakCount>
      <stageThreshold>1.5199424326419830e-01</stageThreshold>
      <weakClassifiers>
        <_>
          <internalNodes>
            0 -1 20 -783956952 1547125011 1409881748 -2010102976
            1895952702 -2147303421 713138855 -1284587135</internalNodes>
          <leafValues>
            -8.9528793096542358e-01 3.0177515745162964e-01</leafValues></_>
        <_>
          <internalNodes>
            0 -1 13 -405566425 -1002438272 -1073659904 -980254207
            1880621570 34340872 1074894995 -549240821</internalNodes>
          <leafValues>
            -7.0292043685913086e-01 6.3939934968948364e-01</leafValues></_>
        <_>
          <internalNodes>
            0 -1 74 -737584439 31195289 65826 -268238308 -905752180
            1073807376 -536638334 -1328840569</internalNodes>
          <leafValues>
            -7.8325062990188599e-01 6.1950683593750000e-01</leafValues></_>
        <_>
          <internalNodes>
            0 -1 12 -320049169 -1469055886 -151060737 2130640886
            2139086335 2147450879 -622595 -209715210</internalNodes>
          <leafValues>
            -6.9006395339965820e-01 7.8341656923294067e-01</leafValues></_>
        <_>
          <internalNodes>
            0 -1 82 -332710283 1806606205 -245764 -1367343105 2130665309
            2146959358 2139061622 -159533346</internalNodes>
          <leafValues>
            -7.1862310171127319e-01 8.2227343320846558e-01</leafValues></_></weakClassifiers></_>
    <!-- stage 7 -->
    <_>
      <maxWeakCount>5</maxWeakCount>
      <stageThreshold>5.6703364849090576e-01</stageThreshold>
      <weakClassifiers>
        <_>
          <internalNodes>
            0 -1 15 -268443789 -173015233 -117768450 -579078153
            -805306625 -673579009 1728053108 -280585</internalNodes>
          <leafValues>
            -6.0958904027938843e-01 8.5294115543365479e-01</leafValues></_>
        <_>
          <internalNodes>
            0 -1 18 -1056611843 807338577 285311124 1913131408
            -2105245518 1904279619 -931616104 -1383133174</internalNodes>
          <leafValues>
            -7.0402365922927856e-01 6.3254833221435547e-01</leafValues></_>
        <_>
          <internalNodes>
            0 -1 45 -788010263 293667904 385856 -788446833 -368444184
            -1996357621 -1039953527 -349934575</internalNodes>
          <leafValues>
            -7.8481006622314453e-01 6.5656512975692749e-01</leafValues></_>
        <_>
          <internalNodes>
            0 -1 2 -1609885672 75826833 1073741890 -1990114798 43867
            -1207402167 302196906 -784650111</internalNodes>
          <leafValues>
            -8.7221246957778931e-01 6.3896995782852173e-01</leafValues></_>
        <_>
          <internalNodes>
            0 -1 3 -18206850 -285245506 -65538 -554696707 1879007223
            1862107133 -32786 -1359841549</internalNodes>
          <leafValues>
            -7.0280849933624268e-01 7.7690982818603516e-01</leafValues></_></weakClassifiers></_>
    <!-- stage 8 -->
    <_>
      <maxWeakCount>7</maxWeakCount>
      <stageThreshold>1.8143677711486816e-01</stageThreshold>
      <weakClassifiers>
        <_>
          <internalNodes>
            0 -1 61 1347519311 470028288 1494417667 -791576376
            -702463487 1611142292 1395163899 -1080024664</internalNodes>
          <leafValues>
            -7.3443984985351562e-01 4.7899159789085388e-01</leafValues></_>
        <_>
          <internalNodes>
            0 -1 37 -452865961 558899204 98332 -770109372 947944080
            302669952 -2142697333 -782423893</internalNodes>
          <leafValues>
            -7.3400211334228516e-01 6.5533167123794556e-01</leafValues></_>
        <_>
          <internalNodes>
            0 -1 26 -1563066341 1150025730 -2146402272 -871799476
            -2137910903 1258656041 -1559916411 -126066047</internalNodes>
          <leafValues>
            -8.1402134895324707e-01 5.6086909770965576e-01</leafValues></_>
        <_>
          <internalNodes>
            0 -1 60 1438843751 1682145414 639026 1109104649 -2105333694
            806371360 -2146953080 -217177646</internalNodes>
          <leafValues>
            -7.5043416023254395e-01 6.5178173780441284e-01</leafValues></_>
        <_>
          <internalNodes>
            0 -1 66 -1851241631 1342439488 285282385 2069700673
            -2146924222 -1970755519 537269066 -2104881008</internalNodes>
          <leafValues>
            -6.9990760087966919e-01 7.4394965171813965e-01</leafValues></_>
        <_>
          <internalNodes>
            0 -1 48 -1870487153 -1609038590 -2147401315 1225887753
            1208616235 1074823173 -1476263926 -612841595</internalNodes>
          <leafValues>
            -7.3518049716949463e-01 7.3101282119750977e-01</leafValues></_>
        <_>
          <internalNodes>
            0 -1 27 -670952182 -1052700631 -1325117164 -1031536624
            537004160 -1878816766 -2004876223 -1467342280</internalNodes>
          <leafValues>
            -8.4895014762878418e-01 6.4330607652664185e-01</leafValues></_></weakClassifiers></_>
    <!-- stage 9 -->
    <_>
      <maxWeakCount>7</maxWeakCount>
      <stageThreshold>1.0522794723510742e-01</stageThreshold>
      <weakClassifiers>
        <_>
          <internalNodes>
            0 -1 44 1988457935 1119930509 286638784 -996572607 151097662
            -1843854816 1090537475 -1076936278</internalNodes>
          <leafValues>
            -7.5630253553390503e-01 4.9180328845977783e-01</leafValues></_>
        <_>
          <internalNodes>
            0 -1 10 -2116724567 -2065657848 4227209 -116817335 794
            1611399816 -2060848568 -507280759</internalNodes>
          <leafValues>
            -6.9489669799804688e-01 6.7731010913848877e-01</leafValues></_>
        <_>
          <internalNodes>
            0 -1 53 -1253862576 407158802 -1526722548 -1021001083
            50401588 1082687776 -1878313599 -22753115</internalNodes>
          <leafValues>
            -8.2537567615509033e-01 5.5945116281509399e-01</leafValues></_>
        <_>
          <internalNodes>
            0 -1 83 -212721647 1171325136 -1056964480 1477820432
            -1342140416 73728 1342417413 2139818008</internalNodes>
          <leafValues>
            -8.5816711187362671e-01 5.5725687742233276e-01</leafValues></_>
        <_>
          <internalNodes>
            0 -1 16 -619532279 -1056079862 196610 805568768 -2113798014
            -503054336 49230 -1701969277</internalNodes>
          <leafValues>
            -7.2757709026336670e-01 6.9481325149536133e-01</leafValues></_>
        <_>
          <internalNodes>
            0 -1 36 -645802635 1354892289 68239369 -682473392 8950963
            -1610579447 -2108030846 1486092301</internalNodes>
          <leafValues>
            -7.1809798479080200e-01 7.5921744108200073e-01</leafValues></_>
        <_>
          <internalNodes>
            0 -1 62 21737493 318832642 1164928 -2012149496 604135552
            -1736114176 176693619 145460981</internalNodes>
          <leafValues>
            -7.8510189056396484e-01 6.6702985763549805e-01</leafValues></_></weakClassifiers></_>
    <!-- stage 10 -->
    <_>
      <maxWeakCount>6</maxWeakCount>
      <stageThreshold>5.9390413761138916e-01</stageThreshold>
      <weakClassifiers>
        <_>
          <internalNodes>
            0 -1 54 -795087563 -1491975915 536937744 -2004283356
            -1876950195 -503316300 -1048508253 -284311384</internalNodes>
          <leafValues>
            -7.0281124114990234e-01 4.9549549818038940e-01</leafValues></_>
        <_>
          <internalNodes>
            0 -1 19 -505156859 -1862192764 11608195 -259489709
            1477181963 1079054336 -2146956369 -2084273721</internalNodes>
          <leafValues>
            -6.7002010345458984e-01 6.4389157295227051e-01</leafValues></_>
        <_>
          <internalNodes>
            0 -1 17 -51662361 -1509714811 5506 -804257776 -2104942207
            818106377 537051144 284050692</internalNodes>
          <leafValues>
            -8.7175714969635010e-01 5.1470917463302612e-01</leafValues></_>
        <_>
          <internalNodes>
            0 -1 71 -199389172 -1866399600 50595843 -2097119102
            -2046817913 -2012643318 1140884430 -2006293559</internalNodes>
          <leafValues>
            -7.7916049957275391e-01 5.7986366748809814e-01</leafValues></_>
        <_>
          <internalNodes>
            0 -1 63 -1069334455 -536788984 134475968 -2129063936
            -1610594128 1610612738 536880290 1577820290</internalNodes>
          <leafValues>
            -8.3510714769363403e-01 5.9628444910049438e-01</leafValues></_>
        <_>
          <internalNodes>
            0 -1 9 -117247578 -683659008 814292997 -1868914552 33588226
            -1987411968 1073807875 -1777958143</internalNodes>
          <leafValues>
            -8.0494862794876099e-01 6.1589503288269043e-01</leafValues></_></weakClassifiers></_>
    <!-- stage 11 -->
    <_>
      <maxWeakCount>5</maxWeakCount>
      <stageThreshold>8.6292430758476257e-02</stageThreshold>
      <weakClassifiers>
        <_>
          <internalNodes>
            0 -1 22 1904341495 1887654123 268961154 -1669201920
            -2145386455 -1869987840 537129111 2124693803</internalNodes>
          <leafValues>
            -7.6106196641921997e-01 3.8805970549583435e-01</leafValues></_>
        <_>
          <internalNodes>
            0 -1 31 -266742390 1120502040 -716826464 -1046830717
            826278128 -1056767992 -1565228744 477252513</internalNodes>
          <leafValues>
            -8.8075959682464600e-01 4.3625253438949585e-01</leafValues></_>
        <_>
          <internalNodes>
            0 -1 14 -264068133 1211630211 -2130655229 1101099276
            276930783 -1560281088 -2147465207 -2121703029</internalNodes>
          <leafValues>
            -6.9903993606567383e-01 6.8966555595397949e-01</leafValues></_>
        <_>
          <internalNodes>
            0 -1 21 -887009107 1884521443 -1996205950 1845822033
            -1342013437 -1610022650 908132623 974848930</internalNodes>
          <leafValues>
            -7.2949248552322388e-01 6.6158735752105713e-01</leafValues></_>
        <_>
          <internalNodes>
            0 -1 40 -1874677621 -1056042984 1342247041 -1709932270
            1090552202 732037130 1342308416 -742846250</internalNodes>
          <leafValues>
            -6.9819283485412598e-01 7.4089103937149048e-01</leafValues></_></weakClassifiers></_>
    <!-- stage 12 -->
    <_>
      <maxWeakCount>5</maxWeakCount>
      <stageThreshold>3.8135114312171936e-01</stageThreshold>
      <weakClassifiers>
        <_>
          <internalNodes>
            0 -1 35 -101 -152346822 2147450613 2146435058 939524079
            -824214018 2147481411 -69271553</internalNodes>
          <leafValues>
            -6.2989324331283569e-01 7.2151899337768555e-01</leafValues></_>
        <_>
          <internalNodes>
            0 -1 11 -1044331078 -434556652 -1958112832 -1038481023
            110744 1484816416 813699536 -1173585248</internalNodes>
          <leafValues>
            -8.8392639160156250e-01 4.8504805564880371e-01</leafValues></_>
        <_>
          <internalNodes>
            0 -1 81 -1319155831 -1068759834 -2147383264 287903872
            -784133535 -2145153024 1247839944 327805440</internalNodes>
          <leafValues>
            -7.8728717565536499e-01 5.5771505832672119e-01</leafValues></_>
        <_>
          <internalNodes>
            0 -1 39 177373785 -234863116 402653314 1099269706 713206945
            -2139094400 -1173730651 1541358106</internalNodes>
          <leafValues>
            -7.4098181724548340e-01 6.6508013010025024e-01</leafValues></_>
        <_>
          <internalNodes>
            0 -1 41 -545431853 -134352933 1879039999 2130505404
            -270696707 -34144260 -1225294081 -1233682523</internalNodes>
          <leafValues>
            -6.4194911718368530e-01 8.3374357223510742e-01</leafValues></_></weakClassifiers></_>
    <!-- stage 13 -->
    <_>
      <maxWeakCount>5</maxWeakCount>
      <stageThreshold>1.5795594453811646e-01</stageThreshold>
      <weakClassifiers>
        <_>
          <internalNodes>
            0 -1 43 -2142250787 1409552770 25232256 1883577609
            -1807302418 1611776320 -1588273119 -610303575</internalNodes>
          <leafValues>
            -7.4590164422988892e-01 5.3448277711868286e-01</leafValues></_>
        <_>
          <internalNodes>
            0 -1 55 -754580083 -1828290409 -2130632448 -648605616
            807501912 -1593662418 -1693316734 -444554995</internalNodes>
          <leafValues>
            -7.3062884807586670e-01 5.8413159847259521e-01</leafValues></_>
        <_>
          <internalNodes>
            0 -1 1 -1979208114 936297002 -2147482591 822702276 67144787
            -2071952702 1075910667 -754005198</internalNodes>
          <leafValues>
            -7.9747921228408813e-01 5.8648771047592163e-01</leafValues></_>
        <_>
          <internalNodes>
            0 -1 32 -1802143674 -754974512 285229058 1342275738
            -1609985758 1089 673219587 -557744103</internalNodes>
          <leafValues>
            -8.3811485767364502e-01 6.1533582210540771e-01</leafValues></_>
        <_>
          <internalNodes>
            0 -1 76 -79675294 -1606417391 17301829 704643085 1266720783
            679478400 -1702854460 -527920961</internalNodes>
          <leafValues>
            -7.0903122425079346e-01 7.5575709342956543e-01</leafValues></_></weakClassifiers></_>
    <!-- stage 14 -->
    <_>
      <maxWeakCount>7</maxWeakCount>
      <stageThreshold>1.7993862926959991e-01</stageThreshold>
      <weakClassifiers>
        <_>
          <internalNodes>
            0 -1 49 -616447031 151158976 1812196673 -1252196221
            437005158 -1433337597 -1335807577 -320753496</internalNodes>
          <leafValues>
            -6.9747900962829590e-01 5.2727270126342773e-01</leafValues></_>
        <_>
          <internalNodes>
            0 -1 57 -1742544353 16988195 352325736 1076396032
            -1576887872 -1740537848 -2063515253 -1587575928</internalNodes>
          <leafValues>
            -7.2412276268005371e-01 6.0749161243438721e-01</leafValues></_>
        <_>
          <internalNodes>
            0 -1 7 -1069492937 84358145 -1609826303 -1877172204
            -335511165 -989265911 -1341056893 -1397129204</internalNodes>
          <leafValues>
            -6.6825741529464722e-01 6.9005250930786133e-01</leafValues></_>
        <_>
          <internalNodes>
            0 -1 59 403278141 2056312010 543817797 -1073344383
            1384867910 -1342074752 -641105507 -780266488</internalNodes>
          <leafValues>
            -6.9927424192428589e-01 6.8751853704452515e-01</leafValues></_>
        <_>
          <internalNodes>
            0 -1 78 -247381671 1400930305 114690 310640771 328346
            -536870904 524993 411279528</internalNodes>
          <leafValues>
            -7.2634547948837280e-01 7.2087097167968750e-01</leafValues></_>
        <_>
          <internalNodes>
            0 -1 5 1163199743 -998207228 16797841 -1333321728
            -1063087473 -535756796 -2146680599 1124079633</internalNodes>
          <leafValues>
            -8.1986391544342041e-01 6.2429994344711304e-01</leafValues></_>
        <_>
          <internalNodes>
            0 -1 67 285843849 1073776280 69566737 -931133437 -2130132702
            -2147479295 -1845124718 865124514</internalNodes>
          <leafValues>
            -8.7509387731552124e-01 6.3310039043426514e-01</leafValues></_></weakClassifiers></_></stages>
  <features>
    <_>
      <rect>
        0 4 6 5</rect></_>
    <_>
      <rect>
        0 5 3 3</rect></_>
    <_>
      <rect>
        0 9 4 2</rect></_>
    <_>
      <rect>
        0 19 1 1</rect></_>
    <_>
      <rect>
        1 1 12 10</rect></_>
    <_>
      <rect>
        1 4 3 2</rect></_>
    <_>
      <rect>
        1 8 10 3</rect></_>
    <_>
      <rect>
        1 11 4 5</rect></_>
    <_>
      <rect>
        1 11 6 7</rect></_>
    <_>
      <rect>
        1 14 2 2</rect></_>
    <_>
      <rect>
        1 14 5 4</rect></_>
    <_>
      <rect>
        1 17 8 4</rect></_>
    <_>
      <rect>
        2 3 3 2</rect></_>
    <_>
      <rect>
        2 18 2 2</rect></_>
    <_>
      <rect>
        3 17 2 3</rect></_>
    <_>
      <rect>
        3 20 3 2</rect></_>
    <_>
      <rect>
        3 24 1 1</rect></_>
    <_>
      <rect>
        3 25 2 2</rect></_>
    <_>
      <rect>
        3 26 7 2</rect></_>
    <_>
      <rect>
        4 5 7 5</rect></_>
    <_>
      <rect>
        4 9 11 5</rect></_>
    <_>
      <rect>
        4 15 9 5</rect></_>
    <_>
      <rect>
        4 17 7 4</rect></_>
    <_>
      <rect>
        5 16 1 1</rect></_>
    <_>
      <rect>
        5 16 4 2</rect></_>
    <_>
      <rect>
        6 1 3 3</rect></_>
    <_>
      <rect>
        6 16 5 5</rect></_>
    <_>
      <rect>
        6 24 8 2</rect></_>
    <_>
      <rect>
        7 19 4 3</rect></_>
    <_>
      <rect>
        8 2 8 3</rect></_>
    <_>
      <rect>
        8 6 6 3</rect></_>
    <_>
      <rect>
        8 6 6 4</rect></_>
    <_>
      <rect>
        8 16 2 1</rect></_>
    <_>
      <rect>
        9 0 9 6</rect></_>
    <_>
      <rect>
        9 4 6 8</rect></_>
    <_>
      <rect>
        9 13 3 2</rect></_>
    <_>
      <rect>
        9 25 3 2</rect></_>
    <_>
      <rect>
        10 21 5 2</rect></_>
    <_>
      <rect>
        10 23 2 3</rect></_>
    <_>
      <rect>
        11 6 4 4</rect></_>
    <_>
      <rect>
        11 11 3 2</rect></_>
    <_>
      <rect>
        11 18 3 4</rect></_>
    <_>
      <rect>
        12 3 3 6</rect></_>
    <_>
      <rect>
        12 4 5 4</rect></_>
    <_>
      <rect>
        12 7 4 3</rect></_>
    <_>
      <rect>
        12 7 6 5</rect></_>
    <_>
      <rect>
        13 0 2 2</rect></_>
    <_>
      <rect>
        13 0 6 4</rect></_>
    <_>
      <rect>
        13 5 4 4</rect></_>
    <_>
      <rect>
        13 6 4 3</rect></_>
    <_>
      <rect>
        13 7 4 3</rect></_>
    <_>
      <rect>
        13 10 5 3</rect></_>
    <_>
      <rect>
        13 15 3 2</rect></_>
    <_>
      <rect>
        13 17 6 5</rect></_>
    <_>
      <rect>
        13 18 6 3</rect></_>
    <_>
      <rect>
        13 21 4 2</rect></_>
    <_>
      <rect>
        15 16 2 1</rect></_>
    <_>
      <rect>
        16 18 3 2</rect></_>
    <_>
      <rect>
        17 4 2 2</rect></_>
    <_>
      <rect>
        17 12 3 2</rect></_>
    <_>
      <rect>
        17 16 3 2</rect></_>
    <_>
      <rect>
        17 18 6 3</rect></_>
    <_>
      <rect>
        18 15 4 3</rect></_>
    <_>
      <rect>
        18 17 4 2</rect></_>
    <_>
      <rect>
        18 19 6 3</rect></_>
    <_>
      <rect>
        19 2 3 3</rect></_>
    <_>
      <rect>
        19 7 3 1</rect></_>
    <_>
      <rect>
        19 9 2 2</rect></_>
    <_>
      <rect>
        19 24 2 2</rect></_>
    <_>
      <rect>
        20 17 2 1</rect></_>
    <_>
      <rect>
        20 20 4 3</rect></_>
    <_>
      <rect>
        22 8 2 2</rect></_>
    <_>
      <rect>
        22 8 5 3</rect></_>
    <_>
      <rect>
        22 19 3 4</rect></_>
    <_>
      <rect>
        23 24 3 2</rect></_>
    <_>
      <rect>
        24 17 4 4</rect></_>
    <_>
      <rect>
        25 13 3 2</rect></_>
    <_>
      <rect>
        27 5 2 1</rect></_>
    <_>
      <rect>
        28 2 3 3</rect></_>
    <_>
      <rect>
        28 14 3 6</rect></_>
    <_>
      <rect>
        28 20 3 4</rect></_>
    <_>
      <rect>
        29 19 2 3</rect></_>
    <_>
      <rect>
        29 25 2 2</rect></_>
    <_>
      <rect>
        33 6 1 1</rect></_></features></cascade>
</opencv_storage>
